-0.149787902832031,-0.341991603374481,-0.425207793712616,0.457975506782532,0.272852897644043,0.312943160533905,-0.322852373123169,-0.263870775699615,0.00233134627342224,-0.391781270503998,-0.308281064033508,-0.291264414787292,0.306976675987244,0.132473260164261,-0.0505325794219971,0.382166743278503,-0.299231648445129,-0.239371314644814,-0.0865632891654968,0.466719031333923,-0.366104304790497,-0.420878231525421,0.13407289981842,-0.317011535167694,-0.0563430935144424,-0.298151791095734,-0.447287321090698,0.178056329488754,-0.0444501638412476,0.454266607761383,-0.314955472946167,-0.0323434621095657,0.230233728885651,0.103789150714874,0.142499312758446,0.213000878691673,0.0235131978988647,0.0211760997772217,0.320665180683136,0.138310194015503,0.354371249675751,-0.311307907104492,-0.251153290271759,-0.410100758075714,0.198761329054832,-0.344980657100677,-0.262619733810425,-0.181442692875862,-0.245058059692383,0.472575068473816,-0.0676750540733337,-0.156772553920746,0.281262814998627,0.333801627159119,-0.137503445148468,-0.150928065180779,-0.289335131645203,0.239966690540314,0.411490082740784,-0.116057574748993,0.144973069429398,0.182300448417664,0.0487431585788727,0.0100193917751312,-0.213053226470947,0.196676462888718,0.159024357795715,-0.216705620288849,0.022099606692791,0.164540350437164,0.0848244056105614,0.140883415937424,-0.0908300206065178,0.0721643790602684,-0.0574264824390411,-0.10582097619772,0.199625641107559,-0.11081986874342,0.125526696443558,-0.166603952646255,-0.079925000667572,0.0856949612498283,
